<?xml version="1.0"?>
<opencv_storage>
<cascade>
  <stageType>BOOST</stageType>
  <featureType>HAAR</featureType>
  <height>24</height>
  <width>24</width>
  <stageParams>
    <boostType>GAB</boostType>
    <minHitRate>9.9500000476837158e-01</minHitRate>
    <maxFalseAlarm>5.0000000000000000e-01</maxFalseAlarm>
    <weightTrimRate>9.4999998807907104e-01</weightTrimRate>
    <maxDepth>1</maxDepth>
    <maxWeakCount>100</maxWeakCount></stageParams>
  <featureParams>
    <maxCatCount>0</maxCatCount>
    <featSize>1</featSize>
    <mode>BASIC</mode></featureParams>
  <stageNum>20</stageNum>
  <stages>
    <!-- stage 0 -->
    <_>
      <maxWeakCount>4</maxWeakCount>
      <stageThreshold>-2.7086824178695679e-01</stageThreshold>
      <weakClassifiers>
        <_>
          <internalNodes>
            0 -1 20 3.1796596944332123e-02</internalNodes>
          <leafValues>
            -6.4705884456634521e-01 7.1428573131561279e-01</leafValues></_>
        <_>
          <internalNodes>
            0 -1 49 -9.5455360133200884e-04</internalNodes>
          <leafValues>
            5.7021701335906982e-01 -5.1188749074935913e-01</leafValues></_>
        <_>
          <internalNodes>
            0 -1 78 3.4240849345223978e-05</internalNodes>
          <leafValues>
            5.0611954927444458e-01 -6.9012337923049927e-01</leafValues></_>
        <_>
          <internalNodes>
            0 -1 70 -1.1206551425857469e-04</internalNodes>
          <leafValues>
            -7.0014595985412598e-01 5.1018631458282471e-01</leafValues></_></weakClassifiers></_>
    <!-- stage 1 -->
    <_>
      <maxWeakCount>3</maxWeakCount>
      <stageThreshold>-2.5397256016731262e-01</stageThreshold>
      <weakClassifiers>
        <_>
          <internalNodes>
            0 -1 44 -8.4370508790016174e-02</internalNodes>
          <leafValues>
            7.4193549156188965e-01 -5.4838711023330688e-01</leafValues></_>
        <_>
          <internalNodes>
            0 -1 59 -1.2551791965961456e-02</internalNodes>
          <leafValues>
            6.7007178068161011e-01 -4.6474149823188782e-01</leafValues></_>
        <_>
          <internalNodes>
            0 -1 69 4.8200227320194244e-03</internalNodes>
          <leafValues>
            -3.7565723061561584e-01 7.7002412080764771e-01</leafValues></_></weakClassifiers></_>
    <!-- stage 2 -->
    <_>
      <maxWeakCount>5</maxWeakCount>
      <stageThreshold>-4.7536218166351318e-01</stageThreshold>
      <weakClassifiers>
        <_>
          <internalNodes>
            0 -1 26 -3.2133080065250397e-02</internalNodes>
          <leafValues>
            7.1875000000000000e-01 -5.6043958663940430e-01</leafValues></_>
        <_>
          <internalNodes>
            0 -1 1 -3.8241643778746948e-05</internalNodes>
          <leafValues>
            -7.2823548316955566e-01 4.4941160082817078e-01</leafValues></_>
        <_>
          <internalNodes>
            0 -1 31 -2.3146664723753929e-02</internalNodes>
          <leafValues>
            9.0503364801406860e-01 -4.2323371767997742e-01</leafValues></_>
        <_>
          <internalNodes>
            0 -1 14 -2.6154877559747547e-05</internalNodes>
          <leafValues>
            -6.2700271606445313e-01 4.9046885967254639e-01</leafValues></_>
        <_>
          <internalNodes>
            0 -1 40 -5.0866911187767982e-03</internalNodes>
          <leafValues>
            6.8590217828750610e-01 -4.2648079991340637e-01</leafValues></_></weakClassifiers></_>
    <!-- stage 3 -->
    <_>
      <maxWeakCount>5</maxWeakCount>
      <stageThreshold>-1.5122990310192108e-01</stageThreshold>
      <weakClassifiers>
        <_>
          <internalNodes>
            0 -1 43 -2.2093128412961960e-02</internalNodes>
          <leafValues>
            6.7164176702499390e-01 -5.6818181276321411e-01</leafValues></_>
        <_>
          <internalNodes>
            0 -1 36 1.1834735050797462e-02</internalNodes>
          <leafValues>
            -3.4996733069419861e-01 8.7517577409744263e-01</leafValues></_>
        <_>
          <internalNodes>
            0 -1 75 5.0720438593998551e-05</internalNodes>
          <leafValues>
            4.3881073594093323e-01 -7.5962525606155396e-01</leafValues></_>
        <_>
          <internalNodes>
            0 -1 34 -8.0116406083106995e-02</internalNodes>
          <leafValues>
            9.1111361980438232e-01 -3.5042798519134521e-01</leafValues></_>
        <_>
          <internalNodes>
            0 -1 56 1.0549160651862621e-02</internalNodes>
          <leafValues>
            -5.4660660028457642e-01 7.2604459524154663e-01</leafValues></_></weakClassifiers></_>
    <!-- stage 4 -->
    <_>
      <maxWeakCount>4</maxWeakCount>
      <stageThreshold>-4.6069923043251038e-01</stageThreshold>
      <weakClassifiers>
        <_>
          <internalNodes>
            0 -1 10 -5.8913923799991608e-02</internalNodes>
          <leafValues>
            8.4905660152435303e-01 -4.9019607901573181e-01</leafValues></_>
        <_>
          <internalNodes>
            0 -1 32 -2.2187825292348862e-02</internalNodes>
          <leafValues>
            7.7393245697021484e-01 -3.4278947114944458e-01</leafValues></_>
        <_>
          <internalNodes>
            0 -1 48 5.0606414675712585e-02</internalNodes>
          <leafValues>
            -3.3704268932342529e-01 9.3324714899063110e-01</leafValues></_>
        <_>
          <internalNodes>
            0 -1 25 -5.5992722511291504e-02</internalNodes>
          <leafValues>
            7.1547985076904297e-01 -4.0739294886589050e-01</leafValues></_></weakClassifiers></_>
    <!-- stage 5 -->
    <_>
      <maxWeakCount>4</maxWeakCount>
      <stageThreshold>-3.2580178976058960e-01</stageThreshold>
      <weakClassifiers>
        <_>
          <internalNodes>
            0 -1 53 1.0181984305381775e-01</internalNodes>
          <leafValues>
            -5.1578944921493530e-01 7.3333334922790527e-01</leafValues></_>
        <_>
          <internalNodes>
            0 -1 47 -1.0221786797046661e-03</internalNodes>
          <leafValues>
            -7.3077619075775146e-01 4.1154673695564270e-01</leafValues></_>
        <_>
          <internalNodes>
            0 -1 67 -2.3542386479675770e-03</internalNodes>
          <leafValues>
            -9.1265368461608887e-01 2.5008136034011841e-01</leafValues></_>
        <_>
          <internalNodes>
            0 -1 38 2.4159257009159774e-04</internalNodes>
          <leafValues>
            -4.2881110310554504e-01 6.9109463691711426e-01</leafValues></_></weakClassifiers></_>
    <!-- stage 6 -->
    <_>
      <maxWeakCount>5</maxWeakCount>
      <stageThreshold>-3.7990292906761169e-01</stageThreshold>
      <weakClassifiers>
        <_>
          <internalNodes>
            0 -1 55 -1.3015568256378174e-01</internalNodes>
          <leafValues>
            7.9591834545135498e-01 -4.1509434580802917e-01</leafValues></_>
        <_>
          <internalNodes>
            0 -1 76 -1.3223954010754824e-03</internalNodes>
          <leafValues>
            -7.4925410747528076e-01 3.9488098025321960e-01</leafValues></_>
        <_>
          <internalNodes>
            0 -1 19 -2.8052743524312973e-02</internalNodes>
          <leafValues>
            8.2918202877044678e-01 -4.2408683896064758e-01</leafValues></_>
        <_>
          <internalNodes>
            0 -1 18 5.6956920161610469e-05</internalNodes>
          <leafValues>
            4.2170801758766174e-01 -6.3507866859436035e-01</leafValues></_>
        <_>
          <internalNodes>
            0 -1 68 3.0390450265258551e-03</internalNodes>
          <leafValues>
            -3.5731074213981628e-01 7.2407585382461548e-01</leafValues></_></weakClassifiers></_>
    <!-- stage 7 -->
    <_>
      <maxWeakCount>3</maxWeakCount>
      <stageThreshold>-3.5358142852783203e-01</stageThreshold>
      <weakClassifiers>
        <_>
          <internalNodes>
            0 -1 45 -1.1360694468021393e-01</internalNodes>
          <leafValues>
            9.4999998807907104e-01 -3.7391304969787598e-01</leafValues></_>
        <_>
          <internalNodes>
            0 -1 42 -2.5769794592633843e-04</internalNodes>
          <leafValues>
            -7.1959912776947021e-01 4.1963860392570496e-01</leafValues></_>
        <_>
          <internalNodes>
            0 -1 61 -2.4385990574955940e-02</internalNodes>
          <leafValues>
            7.7393925189971924e-01 -3.9930698275566101e-01</leafValues></_></weakClassifiers></_>
    <!-- stage 8 -->
    <_>
      <maxWeakCount>5</maxWeakCount>
      <stageThreshold>-9.5091140270233154e-01</stageThreshold>
      <weakClassifiers>
        <_>
          <internalNodes>
            0 -1 8 -2.5120949745178223e-01</internalNodes>
          <leafValues>
            6.0606062412261963e-01 -5.0561797618865967e-01</leafValues></_>
        <_>
          <internalNodes>
            0 -1 15 -4.8412120668217540e-04</internalNodes>
          <leafValues>
            -8.1079149246215820e-01 3.0991038680076599e-01</leafValues></_>
        <_>
          <internalNodes>
            0 -1 65 -4.8369198339059949e-04</internalNodes>
          <leafValues>
            -6.5505236387252808e-01 3.4950175881385803e-01</leafValues></_>
        <_>
          <internalNodes>
            0 -1 6 4.0062909829430282e-04</internalNodes>
          <leafValues>
            3.9521506428718567e-01 -7.1221125125885010e-01</leafValues></_>
        <_>
          <internalNodes>
            0 -1 30 -4.6680219471454620e-02</internalNodes>
          <leafValues>
            7.9306864738464355e-01 -3.9249429106712341e-01</leafValues></_></weakClassifiers></_>
    <!-- stage 9 -->
    <_>
      <maxWeakCount>4</maxWeakCount>
      <stageThreshold>-5.5719137191772461e-01</stageThreshold>
      <weakClassifiers>
        <_>
          <internalNodes>
            0 -1 35 -1.2968191504478455e-01</internalNodes>
          <leafValues>
            6.4864861965179443e-01 -6.5432101488113403e-01</leafValues></_>
        <_>
          <internalNodes>
            0 -1 74 -2.5545065000187606e-05</internalNodes>
          <leafValues>
            -6.7148810625076294e-01 4.0947988629341125e-01</leafValues></_>
        <_>
          <internalNodes>
            0 -1 42 7.7768415212631226e-04</internalNodes>
          <leafValues>
            4.4137555360794067e-01 -6.6261708736419678e-01</leafValues></_>
        <_>
          <internalNodes>
            0 -1 41 1.6291819047182798e-03</internalNodes>
          <leafValues>
            3.7882220745086670e-01 -7.5372588634490967e-01</leafValues></_></weakClassifiers></_>
    <!-- stage 10 -->
    <_>
      <maxWeakCount>4</maxWeakCount>
      <stageThreshold>-4.6649360656738281e-01</stageThreshold>
      <weakClassifiers>
        <_>
          <internalNodes>
            0 -1 37 -1.8813347816467285e-01</internalNodes>
          <leafValues>
            8.6666667461395264e-01 -4.0000000596046448e-01</leafValues></_>
        <_>
          <internalNodes>
            0 -1 62 1.6148662194609642e-02</internalNodes>
          <leafValues>
            -2.6647883653640747e-01 8.2429313659667969e-01</leafValues></_>
        <_>
          <internalNodes>
            0 -1 58 7.9119745350908488e-05</internalNodes>
          <leafValues>
            -4.8246935009956360e-01 6.4240664243698120e-01</leafValues></_>
        <_>
          <internalNodes>
            0 -1 27 -7.3036011308431625e-03</internalNodes>
          <leafValues>
            7.2102344036102295e-01 -4.0831738710403442e-01</leafValues></_></weakClassifiers></_>
    <!-- stage 11 -->
    <_>
      <maxWeakCount>4</maxWeakCount>
      <stageThreshold>-5.4351520538330078e-01</stageThreshold>
      <weakClassifiers>
        <_>
          <internalNodes>
            0 -1 5 -3.4033700823783875e-01</internalNodes>
          <leafValues>
            8.3333331346511841e-01 -4.2056074738502502e-01</leafValues></_>
        <_>
          <internalNodes>
            0 -1 72 -1.3118439819663763e-03</internalNodes>
          <leafValues>
            -1. 3.4219110012054443e-01</leafValues></_>
        <_>
          <internalNodes>
            0 -1 63 4.0289753815159202e-04</internalNodes>
          <leafValues>
            3.3634969592094421e-01 -7.9644566774368286e-01</leafValues></_>
        <_>
          <internalNodes>
            0 -1 33 9.4362942036241293e-04</internalNodes>
          <leafValues>
            3.3130010962486267e-01 -7.0956075191497803e-01</leafValues></_></weakClassifiers></_>
    <!-- stage 12 -->
    <_>
      <maxWeakCount>4</maxWeakCount>
      <stageThreshold>-3.3815875649452209e-01</stageThreshold>
      <weakClassifiers>
        <_>
          <internalNodes>
            0 -1 24 -1.8417668342590332e-01</internalNodes>
          <leafValues>
            7.3913043737411499e-01 -6.5116280317306519e-01</leafValues></_>
        <_>
          <internalNodes>
            0 -1 80 -1.4077425003051758e-03</internalNodes>
          <leafValues>
            -8.0800116062164307e-01 4.5996147394180298e-01</leafValues></_>
        <_>
          <internalNodes>
            0 -1 12 -6.0230523347854614e-02</internalNodes>
          <leafValues>
            6.8611568212509155e-01 -5.3093332052230835e-01</leafValues></_>
        <_>
          <internalNodes>
            0 -1 17 2.4510452058166265e-03</internalNodes>
          <leafValues>
            4.3488946557044983e-01 -7.8144925832748413e-01</leafValues></_></weakClassifiers></_>
    <!-- stage 13 -->
    <_>
      <maxWeakCount>5</maxWeakCount>
      <stageThreshold>-4.6789851784706116e-01</stageThreshold>
      <weakClassifiers>
        <_>
          <internalNodes>
            0 -1 57 3.3142656087875366e-02</internalNodes>
          <leafValues>
            -3.5849055647850037e-01 6.7346936464309692e-01</leafValues></_>
        <_>
          <internalNodes>
            0 -1 16 -1.7355891177430749e-03</internalNodes>
          <leafValues>
            -8.4316885471343994e-01 2.8689646720886230e-01</leafValues></_>
        <_>
          <internalNodes>
            0 -1 39 -1.4464934356510639e-03</internalNodes>
          <leafValues>
            5.8136337995529175e-01 -4.0838035941123962e-01</leafValues></_>
        <_>
          <internalNodes>
            0 -1 4 6.4687803387641907e-04</internalNodes>
          <leafValues>
            5.0955653190612793e-01 -5.6816011667251587e-01</leafValues></_>
        <_>
          <internalNodes>
            0 -1 29 -1.8122418550774455e-03</internalNodes>
          <leafValues>
            7.8561472892761230e-01 -3.5715901851654053e-01</leafValues></_></weakClassifiers></_>
    <!-- stage 14 -->
    <_>
      <maxWeakCount>4</maxWeakCount>
      <stageThreshold>-3.5762959718704224e-01</stageThreshold>
      <weakClassifiers>
        <_>
          <internalNodes>
            0 -1 28 -2.0027925074100494e-01</internalNodes>
          <leafValues>
            4.9367088079452515e-01 -5.7894736528396606e-01</leafValues></_>
        <_>
          <internalNodes>
            0 -1 22 -6.7870842758566141e-04</internalNodes>
          <leafValues>
            -6.5888845920562744e-01 3.7502145767211914e-01</leafValues></_>
        <_>
          <internalNodes>
            0 -1 66 -7.0876965764909983e-04</internalNodes>
          <leafValues>
            -6.9673800468444824e-01 3.4181663393974304e-01</leafValues></_>
        <_>
          <internalNodes>
            0 -1 54 -4.4373882701620460e-05</internalNodes>
          <leafValues>
            5.8609294891357422e-01 -4.9552032351493835e-01</leafValues></_></weakClassifiers></_>
    <!-- stage 15 -->
    <_>
      <maxWeakCount>4</maxWeakCount>
      <stageThreshold>-1.2712105512619019e+00</stageThreshold>
      <weakClassifiers>
        <_>
          <internalNodes>
            0 -1 2 -6.3554551452398300e-03</internalNodes>
          <leafValues>
            -6.5714287757873535e-01 4.8235294222831726e-01</leafValues></_>
        <_>
          <internalNodes>
            0 -1 21 -3.1749985646456480e-04</internalNodes>
          <leafValues>
            -6.7358136177062988e-01 4.3503946065902710e-01</leafValues></_>
        <_>
          <internalNodes>
            0 -1 77 -7.2654301766306162e-04</internalNodes>
          <leafValues>
            -5.9901762008666992e-01 4.3951353430747986e-01</leafValues></_>
        <_>
          <internalNodes>
            0 -1 23 -4.5043386518955231e-02</internalNodes>
          <leafValues>
            6.7077338695526123e-01 -4.8096454143524170e-01</leafValues></_></weakClassifiers></_>
    <!-- stage 16 -->
    <_>
      <maxWeakCount>2</maxWeakCount>
      <stageThreshold>1.4839586219750345e-04</stageThreshold>
      <weakClassifiers>
        <_>
          <internalNodes>
            0 -1 0 -6.5976651967503130e-05</internalNodes>
          <leafValues>
            -7.8571426868438721e-01 3.9393940567970276e-01</leafValues></_>
        <_>
          <internalNodes>
            0 -1 52 -4.0706275030970573e-03</internalNodes>
          <leafValues>
            7.8586268424987793e-01 -3.8315406441688538e-01</leafValues></_></weakClassifiers></_>
    <!-- stage 17 -->
    <_>
      <maxWeakCount>5</maxWeakCount>
      <stageThreshold>-9.8114711046218872e-01</stageThreshold>
      <weakClassifiers>
        <_>
          <internalNodes>
            0 -1 11 -5.9117533965036273e-04</internalNodes>
          <leafValues>
            -7.5862067937850952e-01 4.0206184983253479e-01</leafValues></_>
        <_>
          <internalNodes>
            0 -1 60 4.4321857392787933e-02</internalNodes>
          <leafValues>
            -4.5400741696357727e-01 6.0486274957656860e-01</leafValues></_>
        <_>
          <internalNodes>
            0 -1 71 -8.3170220023021102e-04</internalNodes>
          <leafValues>
            -6.8278926610946655e-01 3.5392281413078308e-01</leafValues></_>
        <_>
          <internalNodes>
            0 -1 51 1.3904061052016914e-04</internalNodes>
          <leafValues>
            -5.1492667198181152e-01 5.9814375638961792e-01</leafValues></_>
        <_>
          <internalNodes>
            0 -1 73 4.8294961452484131e-03</internalNodes>
          <leafValues>
            3.1887862086296082e-01 -7.4274367094039917e-01</leafValues></_></weakClassifiers></_>
    <!-- stage 18 -->
    <_>
      <maxWeakCount>5</maxWeakCount>
      <stageThreshold>-4.6147349476814270e-01</stageThreshold>
      <weakClassifiers>
        <_>
          <internalNodes>
            0 -1 9 1.8227482214570045e-03</internalNodes>
          <leafValues>
            3.5353535413742065e-01 -7.1428573131561279e-01</leafValues></_>
        <_>
          <internalNodes>
            0 -1 50 -1.0543898679316044e-03</internalNodes>
          <leafValues>
            -6.9884669780731201e-01 3.0857345461845398e-01</leafValues></_>
        <_>
          <internalNodes>
            0 -1 79 5.6221365230157971e-04</internalNodes>
          <leafValues>
            3.9293563365936279e-01 -6.3392603397369385e-01</leafValues></_>
        <_>
          <internalNodes>
            0 -1 7 -3.0167665681801736e-04</internalNodes>
          <leafValues>
            -7.4119073152542114e-01 3.3282026648521423e-01</leafValues></_>
        <_>
          <internalNodes>
            0 -1 3 2.5202514370903373e-04</internalNodes>
          <leafValues>
            3.5385301709175110e-01 -7.8151714801788330e-01</leafValues></_></weakClassifiers></_>
    <!-- stage 19 -->
    <_>
      <maxWeakCount>3</maxWeakCount>
      <stageThreshold>-2.5127542018890381e-01</stageThreshold>
      <weakClassifiers>
        <_>
          <internalNodes>
            0 -1 64 3.3507858461234719e-05</internalNodes>
          <leafValues>
            -5.3846156597137451e-01 6.8750000000000000e-01</leafValues></_>
        <_>
          <internalNodes>
            0 -1 13 -7.7364398748613894e-05</internalNodes>
          <leafValues>
            6.8930697441101074e-01 -5.0068032741546631e-01</leafValues></_>
        <_>
          <internalNodes>
            0 -1 46 1.1992869076493662e-05</internalNodes>
          <leafValues>
            -3.6190611124038696e-01 7.8786647319793701e-01</leafValues></_></weakClassifiers></_></stages>
  <features>
    <_>
      <rects>
        <_>
          0 0 2 3 -1.</_>
        <_>
          1 0 1 3 2.</_></rects>
      <tilted>0</tilted></_>
    <_>
      <rects>
        <_>
          0 0 1 15 -1.</_>
        <_>
          0 5 1 5 3.</_></rects>
      <tilted>0</tilted></_>
    <_>
      <rects>
        <_>
          0 0 1 24 -1.</_>
        <_>
          0 12 1 12 2.</_></rects>
      <tilted>0</tilted></_>
    <_>
      <rects>
        <_>
          0 0 6 2 -1.</_>
        <_>
          0 1 6 1 2.</_></rects>
      <tilted>0</tilted></_>
    <_>
      <rects>
        <_>
          0 0 14 1 -1.</_>
        <_>
          7 0 7 1 2.</_></rects>
      <tilted>0</tilted></_>
    <_>
      <rects>
        <_>
          0 0 21 24 -1.</_>
        <_>
          0 8 21 8 3.</_></rects>
      <tilted>0</tilted></_>
    <_>
      <rects>
        <_>
          0 1 1 9 -1.</_>
        <_>
          0 4 1 3 3.</_></rects>
      <tilted>0</tilted></_>
    <_>
      <rects>
        <_>
          0 1 2 6 -1.</_>
        <_>
          0 1 1 3 2.</_>
        <_>
          1 4 1 3 2.</_></rects>
      <tilted>0</tilted></_>
    <_>
      <rects>
        <_>
          0 1 24 23 -1.</_>
        <_>
          8 1 8 23 3.</_></rects>
      <tilted>0</tilted></_>
    <_>
      <rects>
        <_>
          0 4 1 12 -1.</_>
        <_>
          0 8 1 4 3.</_></rects>
      <tilted>0</tilted></_>
    <_>
      <rects>
        <_>
          0 5 8 13 -1.</_>
        <_>
          4 5 4 13 2.</_></rects>
      <tilted>0</tilted></_>
    <_>
      <rects>
        <_>
          0 6 1 9 -1.</_>
        <_>
          0 9 1 3 3.</_></rects>
      <tilted>0</tilted></_>
    <_>
      <rects>
        <_>
          0 15 18 7 -1.</_>
        <_>
          9 15 9 7 2.</_></rects>
      <tilted>0</tilted></_>
    <_>
      <rects>
        <_>
          0 15 20 2 -1.</_>
        <_>
          0 15 10 1 2.</_>
        <_>
          10 16 10 1 2.</_></rects>
      <tilted>0</tilted></_>
    <_>
      <rects>
        <_>
          0 18 4 6 -1.</_>
        <_>
          0 18 2 3 2.</_>
        <_>
          2 21 2 3 2.</_></rects>
      <tilted>0</tilted></_>
    <_>
      <rects>
        <_>
          0 20 2 3 -1.</_>
        <_>
          0 21 2 1 3.</_></rects>
      <tilted>0</tilted></_>
    <_>
      <rects>
        <_>
          0 22 4 2 -1.</_>
        <_>
          2 22 2 2 2.</_></rects>
      <tilted>0</tilted></_>
    <_>
      <rects>
        <_>
          0 22 6 2 -1.</_>
        <_>
          2 22 2 2 3.</_></rects>
      <tilted>0</tilted></_>
    <_>
      <rects>
        <_>
          1 0 9 1 -1.</_>
        <_>
          4 0 3 1 3.</_></rects>
      <tilted>0</tilted></_>
    <_>
      <rects>
        <_>
          1 15 12 5 -1.</_>
        <_>
          5 15 4 5 3.</_></rects>
      <tilted>0</tilted></_>
    <_>
      <rects>
        <_>
          1 16 20 8 -1.</_>
        <_>
          1 20 20 4 2.</_></rects>
      <tilted>0</tilted></_>
    <_>
      <rects>
        <_>
          1 18 2 3 -1.</_>
        <_>
          2 18 1 3 2.</_></rects>
      <tilted>0</tilted></_>
    <_>
      <rects>
        <_>
          2 0 9 1 -1.</_>
        <_>
          5 0 3 1 3.</_></rects>
      <tilted>0</tilted></_>
    <_>
      <rects>
        <_>
          2 0 12 8 -1.</_>
        <_>
          2 4 12 4 2.</_></rects>
      <tilted>0</tilted></_>
    <_>
      <rects>
        <_>
          2 0 21 18 -1.</_>
        <_>
          2 9 21 9 2.</_></rects>
      <tilted>0</tilted></_>
    <_>
      <rects>
        <_>
          2 1 16 8 -1.</_>
        <_>
          2 5 16 4 2.</_></rects>
      <tilted>0</tilted></_>
    <_>
      <rects>
        <_>
          2 3 6 21 -1.</_>
        <_>
          5 3 3 21 2.</_></rects>
      <tilted>0</tilted></_>
    <_>
      <rects>
        <_>
          2 4 6 16 -1.</_>
        <_>
          4 4 2 16 3.</_></rects>
      <tilted>0</tilted></_>
    <_>
      <rects>
        <_>
          3 0 21 20 -1.</_>
        <_>
          3 10 21 10 2.</_></rects>
      <tilted>0</tilted></_>
    <_>
      <rects>
        <_>
          3 8 3 3 -1.</_>
        <_>
          4 8 1 3 3.</_></rects>
      <tilted>0</tilted></_>
    <_>
      <rects>
        <_>
          3 14 12 10 -1.</_>
        <_>
          7 14 4 10 3.</_></rects>
      <tilted>0</tilted></_>
    <_>
      <rects>
        <_>
          3 16 17 6 -1.</_>
        <_>
          3 18 17 2 3.</_></rects>
      <tilted>0</tilted></_>
    <_>
      <rects>
        <_>
          4 2 15 9 -1.</_>
        <_>
          4 5 15 3 3.</_></rects>
      <tilted>0</tilted></_>
    <_>
      <rects>
        <_>
          4 11 1 6 -1.</_>
        <_>
          4 13 1 2 3.</_></rects>
      <tilted>0</tilted></_>
    <_>
      <rects>
        <_>
          4 12 16 12 -1.</_>
        <_>
          4 18 16 6 2.</_></rects>
      <tilted>0</tilted></_>
    <_>
      <rects>
        <_>
          5 0 19 18 -1.</_>
        <_>
          5 9 19 9 2.</_></rects>
      <tilted>0</tilted></_>
    <_>
      <rects>
        <_>
          5 20 9 4 -1.</_>
        <_>
          5 22 9 2 2.</_></rects>
      <tilted>0</tilted></_>
    <_>
      <rects>
        <_>
          6 0 18 23 -1.</_>
        <_>
          12 0 6 23 3.</_></rects>
      <tilted>0</tilted></_>
    <_>
      <rects>
        <_>
          6 7 2 3 -1.</_>
        <_>
          7 7 1 3 2.</_></rects>
      <tilted>0</tilted></_>
    <_>
      <rects>
        <_>
          6 12 2 6 -1.</_>
        <_>
          6 15 2 3 2.</_></rects>
      <tilted>0</tilted></_>
    <_>
      <rects>
        <_>
          6 14 4 10 -1.</_>
        <_>
          8 14 2 10 2.</_></rects>
      <tilted>0</tilted></_>
    <_>
      <rects>
        <_>
          6 16 9 3 -1.</_>
        <_>
          6 17 9 1 3.</_></rects>
      <tilted>0</tilted></_>
    <_>
      <rects>
        <_>
          7 0 3 1 -1.</_>
        <_>
          8 0 1 1 3.</_></rects>
      <tilted>0</tilted></_>
    <_>
      <rects>
        <_>
          7 1 7 8 -1.</_>
        <_>
          7 5 7 4 2.</_></rects>
      <tilted>0</tilted></_>
    <_>
      <rects>
        <_>
          7 6 16 18 -1.</_>
        <_>
          7 12 16 6 3.</_></rects>
      <tilted>0</tilted></_>
    <_>
      <rects>
        <_>
          8 8 15 13 -1.</_>
        <_>
          13 8 5 13 3.</_></rects>
      <tilted>0</tilted></_>
    <_>
      <rects>
        <_>
          8 11 4 1 -1.</_>
        <_>
          10 11 2 1 2.</_></rects>
      <tilted>0</tilted></_>
    <_>
      <rects>
        <_>
          9 13 10 2 -1.</_>
        <_>
          9 13 5 1 2.</_>
        <_>
          14 14 5 1 2.</_></rects>
      <tilted>0</tilted></_>
    <_>
      <rects>
        <_>
          11 0 8 12 -1.</_>
        <_>
          11 4 8 4 3.</_></rects>
      <tilted>0</tilted></_>
    <_>
      <rects>
        <_>
          11 4 1 6 -1.</_>
        <_>
          11 7 1 3 2.</_></rects>
      <tilted>0</tilted></_>
    <_>
      <rects>
        <_>
          11 22 10 1 -1.</_>
        <_>
          16 22 5 1 2.</_></rects>
      <tilted>0</tilted></_>
    <_>
      <rects>
        <_>
          12 1 3 20 -1.</_>
        <_>
          13 1 1 20 3.</_></rects>
      <tilted>0</tilted></_>
    <_>
      <rects>
        <_>
          12 5 10 4 -1.</_>
        <_>
          12 5 5 2 2.</_>
        <_>
          17 7 5 2 2.</_></rects>
      <tilted>0</tilted></_>
    <_>
      <rects>
        <_>
          12 5 12 18 -1.</_>
        <_>
          18 5 6 18 2.</_></rects>
      <tilted>0</tilted></_>
    <_>
      <rects>
        <_>
          12 10 1 2 -1.</_>
        <_>
          12 11 1 1 2.</_></rects>
      <tilted>0</tilted></_>
    <_>
      <rects>
        <_>
          13 2 9 21 -1.</_>
        <_>
          13 9 9 7 3.</_></rects>
      <tilted>0</tilted></_>
    <_>
      <rects>
        <_>
          13 11 10 4 -1.</_>
        <_>
          18 11 5 4 2.</_></rects>
      <tilted>0</tilted></_>
    <_>
      <rects>
        <_>
          13 14 10 4 -1.</_>
        <_>
          18 14 5 4 2.</_></rects>
      <tilted>0</tilted></_>
    <_>
      <rects>
        <_>
          13 18 2 1 -1.</_>
        <_>
          14 18 1 1 2.</_></rects>
      <tilted>0</tilted></_>
    <_>
      <rects>
        <_>
          14 3 6 6 -1.</_>
        <_>
          14 6 6 3 2.</_></rects>
      <tilted>0</tilted></_>
    <_>
      <rects>
        <_>
          14 12 7 12 -1.</_>
        <_>
          14 18 7 6 2.</_></rects>
      <tilted>0</tilted></_>
    <_>
      <rects>
        <_>
          15 7 9 12 -1.</_>
        <_>
          18 7 3 12 3.</_></rects>
      <tilted>0</tilted></_>
    <_>
      <rects>
        <_>
          15 17 4 6 -1.</_>
        <_>
          15 20 4 3 2.</_></rects>
      <tilted>0</tilted></_>
    <_>
      <rects>
        <_>
          16 2 3 1 -1.</_>
        <_>
          17 2 1 1 3.</_></rects>
      <tilted>0</tilted></_>
    <_>
      <rects>
        <_>
          16 15 2 2 -1.</_>
        <_>
          17 15 1 2 2.</_></rects>
      <tilted>0</tilted></_>
    <_>
      <rects>
        <_>
          17 0 3 5 -1.</_>
        <_>
          18 0 1 5 3.</_></rects>
      <tilted>0</tilted></_>
    <_>
      <rects>
        <_>
          17 0 6 1 -1.</_>
        <_>
          19 0 2 1 3.</_></rects>
      <tilted>0</tilted></_>
    <_>
      <rects>
        <_>
          17 12 3 3 -1.</_>
        <_>
          17 13 3 1 3.</_></rects>
      <tilted>0</tilted></_>
    <_>
      <rects>
        <_>
          17 13 6 2 -1.</_>
        <_>
          19 13 2 2 3.</_></rects>
      <tilted>0</tilted></_>
    <_>
      <rects>
        <_>
          17 13 4 8 -1.</_>
        <_>
          17 13 2 4 2.</_>
        <_>
          19 17 2 4 2.</_></rects>
      <tilted>0</tilted></_>
    <_>
      <rects>
        <_>
          17 15 6 9 -1.</_>
        <_>
          20 15 3 9 2.</_></rects>
      <tilted>0</tilted></_>
    <_>
      <rects>
        <_>
          18 1 6 1 -1.</_>
        <_>
          21 1 3 1 2.</_></rects>
      <tilted>0</tilted></_>
    <_>
      <rects>
        <_>
          18 12 3 3 -1.</_>
        <_>
          18 13 3 1 3.</_></rects>
      <tilted>0</tilted></_>
    <_>
      <rects>
        <_>
          21 16 3 6 -1.</_>
        <_>
          21 19 3 3 2.</_></rects>
      <tilted>0</tilted></_>
    <_>
      <rects>
        <_>
          22 0 1 2 -1.</_>
        <_>
          22 1 1 1 2.</_></rects>
      <tilted>0</tilted></_>
    <_>
      <rects>
        <_>
          22 4 2 2 -1.</_>
        <_>
          23 4 1 2 2.</_></rects>
      <tilted>0</tilted></_>
    <_>
      <rects>
        <_>
          23 0 1 12 -1.</_>
        <_>
          23 4 1 4 3.</_></rects>
      <tilted>0</tilted></_>
    <_>
      <rects>
        <_>
          23 0 1 10 -1.</_>
        <_>
          23 5 1 5 2.</_></rects>
      <tilted>0</tilted></_>
    <_>
      <rects>
        <_>
          23 9 1 6 -1.</_>
        <_>
          23 11 1 2 3.</_></rects>
      <tilted>0</tilted></_>
    <_>
      <rects>
        <_>
          23 13 1 9 -1.</_>
        <_>
          23 16 1 3 3.</_></rects>
      <tilted>0</tilted></_>
    <_>
      <rects>
        <_>
          23 16 1 6 -1.</_>
        <_>
          23 19 1 3 2.</_></rects>
      <tilted>0</tilted></_></features></cascade>
</opencv_storage>
